digraph Tree {
node [shape=box, fontname="helvetica"] ;
edge [fontname="helvetica"] ;
0 [label="history <= 2.5\ngini = 0.278\nsamples = 6\nvalue = [5, 1]"] ;
1 [label="gini = 0.0\nsamples = 4\nvalue = [4, 0]"] ;
0 -> 1 [labeldistance=2.5, labelangle=45, headlabel="True"] ;
2 [label="gini = 0.5\nsamples = 2\nvalue = [1, 1]"] ;
0 -> 2 [labeldistance=2.5, labelangle=-45, headlabel="False"] ;
}